#pragma once
#include <Arduino.h>
#include <avr/pgmspace.h>

const int AI_INPUT_SIZE = 11;
const int AI_HIDDEN_SIZE = 8;
const int AI_ACTION_SIZE = 3;

// Input order:
// 0  = front
// 1  = front_delta
// 2  = front_right
// 3  = front_right_delta
// 4  = rear_right
// 5  = rear_right_delta
// 6  = right_angle = front_right - rear_right
// 7  = right_angle_delta = front_right_delta - rear_right_delta
// 8  = prev_wa
// 9  = prev_w
// 10 = prev_wd

// Output order:
// 0 = wa
// 1 = w
// 2 = wd

// PyTorch GRU gate order: reset, update, new
// rows 0..7   = reset gate r
// rows 8..15  = update gate z
// rows 16..23 = new gate n

const float GRU_WEIGHT_IH[24][11] PROGMEM = {
{ 2.03751254e+00f, 1.95385504e+00f, 7.63821006e-02f, 4.53347892e-01f, 3.27212477e+00f, 3.20029163e+00f, 3.02810550e-01f, 4.82495368e-01f, 1.46051912e-06f, 2.11220671e-04f, 1.07707005e-04f },
{ -3.80739951e+00f, -9.22740579e-01f, -3.52073836e+00f, -3.48009896e+00f, -1.78079164e+00f, -9.18112934e-01f, -2.29157376e+00f, -3.28357291e+00f, 5.05661301e-04f, 2.61289897e-05f, -6.84371457e-07f },
{ -1.23858333e+00f, -8.93814623e-01f, -2.08061695e+00f, -1.96232188e+00f, -2.13330317e+00f, -2.38461637e+00f, -3.08390760e+00f, -3.91332436e+00f, 2.19054706e-03f, 9.06715431e-05f, -3.51575949e-07f },
{ 7.35506177e-01f, 4.84351784e-01f, 3.32420141e-01f, 2.07956448e-01f, 8.20044637e-01f, 5.51263630e-01f, 3.85378003e-01f, 7.93246090e-01f, 3.82487178e-06f, 7.21291485e-07f, -8.79215443e-19f },
{ 6.33191109e-01f, 3.75076532e-01f, 7.77941465e-01f, 6.04713321e-01f, 5.63020468e-01f, 3.03657770e-01f, 4.90264714e-01f, 6.63622022e-01f, 1.07138760e-08f, 2.18565106e-07f, -1.06745346e-09f },
{ -2.89288282e-01f, -2.30606318e-01f, -1.29801428e+00f, -1.04666793e+00f, 2.34666467e-01f, 5.01434982e-01f, 4.91696537e-01f, 9.16762114e-01f, -3.56501891e-06f, -3.35160352e-04f, -1.13125573e-07f },
{ -1.88135779e+00f, -2.60697818e+00f, -2.39387703e+00f, -2.45235085e+00f, -1.44952226e+00f, -1.54449415e+00f, -2.59017324e+00f, -3.35065556e+00f, 4.16389412e-07f, 4.60021784e-06f, -3.31990032e-06f },
{ -1.71207845e+00f, -1.99291050e+00f, -1.08184195e+00f, -1.83206832e+00f, -1.38231361e+00f, -6.83341563e-01f, -2.91290832e+00f, -3.01385570e+00f, 9.11407173e-04f, 4.06084582e-03f, -9.64817300e-05f },
{ -1.84274292e+00f, -9.25410509e-01f, -1.30154812e+00f, -1.45842409e+00f, 2.51950353e-01f, -3.14383805e-01f, -3.90046096e+00f, -3.87469053e+00f, -9.24702326e-05f, 2.92474870e-05f, -6.18040190e-07f },
{ 7.02670670e+00f, -9.82594967e-01f, 4.00772858e+00f, 4.37325382e+00f, -8.68110085e+00f, -7.84995604e+00f, -7.21662140e+00f, -9.23854351e+00f, -6.92426041e-02f, 1.15065828e-01f, -1.09533504e-01f },
{ -1.85341322e+00f, -2.28887010e+00f, -2.15826130e+00f, -2.57796454e+00f, -2.32704687e+00f, -2.26905179e+00f, -2.09785342e+00f, -2.42077613e+00f, -1.96809851e-05f, 7.03837140e-04f, 7.05456841e-07f },
{ 2.59744430e+00f, 2.68200850e+00f, 2.89882112e+00f, 2.80828476e+00f, 4.24600601e+00f, 4.30774927e+00f, 4.96755075e+00f, 4.97044849e+00f, -3.84290615e-06f, 3.19710693e-08f, 2.92507041e-41f },
{ 1.74428189e+00f, 2.60071301e+00f, 1.89487147e+00f, 1.94227839e+00f, 3.64205074e+00f, 3.10951972e+00f, 7.31809735e-01f, 7.88136184e-01f, 5.95130132e-08f, -6.46530634e-06f, 1.29289829e-05f },
{ -1.81849468e+00f, -9.22636688e-01f, -1.96806002e+00f, -1.86042917e+00f, -1.29337060e+00f, -1.93037689e+00f, -3.28350878e+00f, -3.01173186e+00f, 3.27921263e-08f, 2.70554065e-05f, 1.57338084e-11f },
{ 8.10360718e+00f, 1.58209455e+00f, 2.76738882e+00f, 1.20301950e+00f, -3.66386843e+00f, -2.05061960e+00f, 3.77338815e+00f, 3.26442862e+00f, 3.36553156e-03f, -7.85884112e-02f, -1.27402917e-02f },
{ -3.72934628e+00f, -3.95637727e+00f, -1.75305223e+00f, -2.29835725e+00f, -3.97098660e+00f, -4.16637325e+00f, -2.50227547e+00f, -2.39578748e+00f, -7.23188714e-05f, -2.09139264e-03f, -1.59721635e-03f },
{ 1.28430557e+00f, 1.26971900e+00f, 3.91381526e+00f, 3.63753295e+00f, -3.77732325e+00f, -4.27445269e+00f, 4.75647479e-01f, 1.29754174e+00f, 5.62789897e-03f, 2.75180377e-02f, 4.49312059e-03f },
{ -2.12967968e+00f, -7.02967310e+00f, 2.84227282e-01f, -2.46866643e-01f, -1.99835134e+00f, -4.00802791e-01f, 1.56142020e+00f, -2.47877657e-01f, 7.06536248e-02f, -7.01781139e-02f, -3.42012905e-02f },
{ -5.28585911e-01f, 5.43754883e-02f, 1.75124258e-01f, 1.48878813e-01f, -2.37240389e-01f, 3.49252880e-01f, 8.92188191e-01f, -1.18471217e+00f, -1.77935302e-01f, -1.30902374e+00f, 1.34575891e+00f },
{ -1.13052428e-01f, -6.21717237e-02f, -4.49420422e-01f, -8.11402500e-01f, -8.37888837e-01f, -6.98313296e-01f, -1.63098216e+00f, -2.04456806e+00f, 2.48416939e-07f, -2.21404775e-07f, -6.63767057e-41f },
{ 3.99815172e-01f, 5.74202359e-01f, -2.54494071e-01f, -2.83915281e-01f, -1.68307319e-01f, 4.58722681e-01f, -7.32584000e-01f, -7.18556583e-01f, 1.41664259e-07f, -3.88460535e-07f, 1.27343371e-08f },
{ 7.56895781e-01f, 2.96455550e+00f, 2.99794167e-01f, 4.86884117e-01f, 4.02108669e+00f, 4.23363829e+00f, 3.30770016e+00f, 3.36728358e+00f, 5.58661006e-04f, -1.54008798e-03f, -2.29498437e-06f },
{ 8.14724159e+00f, 1.03694534e+01f, -1.72332585e+00f, -1.69338360e-01f, -2.36510658e+00f, -2.65956378e+00f, -2.79486299e-01f, 1.13989390e-01f, -1.70132201e-02f, -8.39173421e-02f, -6.83017671e-02f },
{ -6.44435525e-01f, 1.74390137e-01f, -3.26732397e-02f, 5.57580590e-01f, 9.94496703e-01f, 7.43506670e-01f, 2.46344283e-01f, -1.59404978e-01f, -1.66151857e+00f, 7.57899106e-01f, 7.76662946e-01f }
};

const float GRU_WEIGHT_HH[24][8] PROGMEM = {
{ 1.04681528e+00f, 1.28000900e-01f, -1.42504454e+00f, -4.06867027e-01f, -5.67633033e-01f, 1.40306485e+00f, 2.30425334e+00f, -3.14035511e+00f },
{ -1.38005805e+00f, -3.49704838e+00f, 2.63095021e-01f, 4.02766258e-01f, -1.12832975e+00f, -9.59837884e-02f, 4.70711142e-01f, -3.84336257e+00f },
{ 7.82441437e-01f, 1.75586760e+00f, 3.04730475e-01f, 3.56523424e-01f, -6.29591525e-01f, -8.54243815e-01f, -1.37539935e+00f, -3.21855950e+00f },
{ 1.18603194e+00f, -1.04259980e+00f, -2.09750867e+00f, -7.32633710e-01f, -2.70134121e-01f, -2.72754371e-01f, -1.60769716e-01f, 4.63775814e-01f },
{ -4.61330004e-02f, -7.92059898e-01f, -6.50086880e-01f, -2.13125110e-01f, 1.39636606e-01f, 1.98130921e-01f, -4.92894053e-01f, 5.54025829e-01f },
{ -3.12596393e+00f, -3.96106333e-01f, 4.61517960e-01f, 5.38228691e-01f, 2.15785217e+00f, -1.75291133e+00f, -3.17615747e-01f, -1.93106309e-01f },
{ -1.09867620e+00f, 2.61252582e-01f, 4.54220343e+00f, 9.01453495e-01f, -2.67070144e-01f, -2.20403522e-01f, 1.29116261e+00f, -5.36686480e-01f },
{ 1.12861753e+00f, 1.96018183e+00f, 3.69512415e+00f, -1.87704116e-02f, -5.47806442e-01f, -8.38397145e-01f, -1.94954276e+00f, -4.02080870e+00f },
{ -1.70212913e+00f, 4.93238598e-01f, 2.72963810e+00f, -1.35061350e-02f, -2.23342016e-01f, -5.34281015e-01f, 8.76256943e-01f, -1.35730433e+00f },
{ 1.67726243e+00f, -4.89970541e+00f, 9.60057139e-01f, -1.23189747e+00f, 5.43008566e-01f, -2.27478695e+00f, 2.90285897e+00f, 3.24742842e+00f },
{ -9.84589279e-01f, 7.91483939e-01f, 1.04610622e+00f, 6.00158393e-01f, -3.86224419e-01f, -1.13526666e+00f, -1.33230603e+00f, -9.89413738e-01f },
{ 1.56645119e+00f, 9.91998851e-01f, -9.19104457e-01f, -2.76858830e+00f, -2.30571604e+00f, 4.28188175e-01f, 9.68885958e-01f, 7.95241058e-01f },
{ 9.13274765e-01f, 3.55866814e+00f, -3.18362427e+00f, 4.12395477e-01f, -3.98158050e+00f, 2.43949938e+00f, 9.19433951e-01f, 9.06577349e-01f },
{ -3.80738586e-01f, -1.45846236e+00f, 4.21071947e-01f, 3.06807804e+00f, 4.42628086e-01f, 1.39554348e-02f, 1.78911984e+00f, -1.84756029e+00f },
{ 3.78264427e-01f, -6.29484355e-01f, 6.85284853e-01f, 4.06737804e-01f, 9.82556522e-01f, -2.20840573e+00f, 2.81754708e+00f, 3.28588486e-01f },
{ -1.59644353e+00f, -6.28665566e-01f, 1.69093215e+00f, 5.10564685e-01f, 8.62394214e-01f, -1.48112857e+00f, 8.01412344e-01f, 1.87335396e+00f },
{ 4.26639766e-01f, 2.14709878e+00f, -3.15062451e+00f, -5.17147064e-01f, 2.77528375e-01f, -3.81944895e-01f, 6.85413885e+00f, -2.83391088e-01f },
{ -1.47240388e+00f, -2.09087178e-01f, -3.89680415e-01f, -4.28396404e-01f, -3.43630984e-02f, -1.04870880e+00f, 2.22439826e-01f, 2.06253156e-01f },
{ 1.75189114e+00f, 3.01199317e-01f, -1.44318569e+00f, -4.33981180e-01f, 9.43024233e-02f, 9.55892324e-01f, -2.65331507e-01f, 1.23106301e+00f },
{ 1.08373117e+00f, -2.72605491e+00f, -2.08469796e+00f, -2.63901782e+00f, 1.76244426e+00f, -7.87025511e-01f, 1.98566869e-01f, 1.23076999e+00f },
{ 8.46602976e-01f, -1.07075024e+00f, 3.41656472e-04f, -1.13046300e+00f, -7.88743943e-02f, 2.62991881e+00f, 1.64500803e-01f, 1.05117619e+00f },
{ 2.33547235e+00f, -1.15386069e+00f, 1.77535594e+00f, 8.62471759e-01f, -1.62386262e+00f, -1.10205019e+00f, 3.78436536e-01f, -4.78226645e-03f },
{ -1.18808180e-01f, 3.93160522e-01f, 9.26113009e-01f, 2.84925461e-01f, -4.56581526e-02f, 1.36233044e+00f, -2.78365105e-01f, 8.28412890e-01f },
{ 1.12173110e-01f, 3.00051153e-01f, 2.05208635e+00f, -6.16329074e-01f, -1.86041266e-01f, -1.11499941e+00f, 1.86600316e+00f, 1.36358488e+00f }
};

const float GRU_BIAS_IH[24] PROGMEM = { 1.47248542e+00f, -9.55516279e-01f, -1.83315933e+00f, 3.94602627e-01f, 5.09963810e-01f, 5.75446069e-01f, -2.40096593e+00f, -2.13658047e+00f, -1.87645507e+00f, -2.04334569e+00f, -1.93408346e+00f, 2.57039642e+00f, 3.01533914e+00f, -1.94223309e+00f, -2.90011692e+00f, 5.46997547e-01f, 2.77056575e+00f, 4.92184210e+00f, -3.16589296e-01f, -7.01955855e-02f, -4.35538381e-01f, -7.81296015e-01f, -4.11154985e+00f, -1.01890409e+00f };

const float GRU_BIAS_HH[24] PROGMEM = { 1.75071752e+00f, -1.41901720e+00f, -2.09180188e+00f, 6.50924861e-01f, 3.21581155e-01f, 2.60357887e-01f, -2.34048700e+00f, -1.94598532e+00f, -1.68589103e+00f, -1.51879048e+00f, -1.53454816e+00f, 2.88518977e+00f, 2.75578475e+00f, -2.23894095e+00f, -3.24243426e+00f, 3.44314247e-01f, 3.19515514e+00f, -3.61751080e-01f, 1.05624151e+00f, -1.73108131e-01f, -2.12456375e-01f, 1.29110873e+00f, 6.19054139e-01f, 3.57108444e-01f };

const float HEAD_WEIGHT[3][8] PROGMEM = {
{ -3.10790449e-01f, 1.29985070e+00f, -1.64933121e+00f, 3.96238407e-03f, 7.43464231e-02f, -4.27201763e-02f, -1.78397191e+00f, -4.96199322e+00f },
{ 8.66252184e-01f, 6.90240338e-02f, -1.79145038e+00f, -2.76967287e-01f, 1.44467711e-01f, -1.41508713e-01f, 1.07574344e-01f, -5.55080831e-01f },
{ -8.10823143e-02f, -1.06641209e+00f, 2.30448699e+00f, 2.36321911e-01f, 3.65686238e-01f, -4.76711273e-01f, 1.48017776e+00f, 4.01931620e+00f }
};

const float HEAD_BIAS[3] PROGMEM = { 1.55761003e+00f, 8.35481882e-01f, -2.08491969e+00f };