#pragma once
#include <Arduino.h>
#include <avr/pgmspace.h>

const int AI_INPUT_SIZE = 9;
const int AI_HIDDEN_SIZE = 16;
const int AI_ACTION_SIZE = 3;

// Input order:
// 0  = front
// 1  = front_delta
// 2  = front_right
// 3  = front_right_delta
// 4  = rear_right
// 5  = rear_right_delta
// 6  = right_angle = front_right - rear_right
// 7  = right_angle_delta = front_right_delta - rear_right_delta
// 8  = prev_wa
// 9  = prev_w
// 10 = prev_wd

// Output order:
// 0 = wa
// 1 = w
// 2 = wd

// PyTorch GRU gate order: reset, update, new
// rows 0..7   = reset gate r
// rows 8..15  = update gate z
// rows 16..23 = new gate n

const float GRU_WEIGHT_IH[48][9] PROGMEM = {
{ -2.78803289e-01f, -1.13658488e+00f, 7.26199985e-01f, 1.54677284e+00f, 5.02976775e-01f, -8.29442978e-01f, -2.92093664e-01f, -6.88418448e-02f, 5.12028709e-02f },
{ 4.94668186e-01f, 1.21751177e+00f, -1.03824401e+00f, 1.22026103e-02f, -2.39249721e-01f, -1.49905622e-01f, 3.23746726e-03f, 7.54052401e-02f, 3.41995992e-02f },
{ -3.50973368e-01f, -2.95602642e-02f, 1.96362838e-01f, -7.49271691e-01f, 3.90730768e-01f, 4.14111376e-01f, 4.59021032e-01f, 2.36277148e-01f, -9.29745376e-01f },
{ -2.12827586e-02f, 4.31380957e-01f, -4.44644600e-01f, -2.24822402e+00f, -3.76051329e-02f, -1.66777387e-01f, -3.32423389e-01f, 1.18032537e-01f, 3.67590815e-01f },
{ 1.13938367e+00f, 2.54723310e-01f, 1.05392598e-01f, -2.33880496e+00f, 1.04472332e-01f, -5.91357887e-01f, -2.84288257e-01f, 4.55221981e-01f, -1.28285334e-01f },
{ -1.52559221e-01f, 2.99196315e+00f, -5.04528940e-01f, -2.03192100e-01f, 2.52486914e-01f, -1.19656110e+00f, 1.57863930e-01f, -2.80195057e-01f, 1.60542101e-01f },
{ 6.93377614e-01f, -8.32545534e-02f, -5.60593665e-01f, 9.57278550e-01f, 7.81287909e-01f, -3.19099098e-01f, -1.10860877e-01f, 6.56664148e-02f, 1.27619892e-01f },
{ -1.03531197e-01f, -4.62168247e-01f, 3.12294453e-01f, -2.78285801e-01f, 5.20392358e-01f, -1.30244732e+00f, 3.11492950e-01f, 2.89080352e-01f, -3.30502659e-01f },
{ 1.96109366e+00f, 3.32385212e-01f, -1.41381219e-01f, -1.82369733e+00f, 2.04581544e-01f, 8.27493489e-01f, -3.68647650e-02f, -1.70517772e-01f, 2.02642530e-01f },
{ 1.43973172e-01f, 1.71048987e+00f, -1.23837054e+00f, -2.53901815e+00f, -2.79165387e-01f, 1.85506928e+00f, -2.58190364e-01f, 2.60986656e-01f, -2.35308334e-01f },
{ 4.41614650e-02f, 1.27482343e+00f, -1.63663161e+00f, -8.58315349e-01f, 2.99625516e-01f, 2.08901572e+00f, -6.11461341e-01f, 6.29220128e-01f, -8.22215620e-03f },
{ 4.16701823e-01f, 1.79052758e+00f, 3.01028818e-01f, -9.33027733e-03f, 1.10855711e+00f, 7.39962280e-01f, -1.37670726e-01f, 3.18087280e-01f, -1.22691952e-01f },
{ -1.24932683e+00f, -4.65415865e-02f, 4.30804431e-01f, -1.08012104e+00f, 3.85245979e-01f, -1.34292036e-01f, -1.53194889e-01f, 3.59489620e-02f, 5.95591664e-02f },
{ -9.06387568e-02f, -1.26994979e+00f, 9.68969107e-01f, -8.40932190e-01f, -4.32787478e-01f, 5.69682300e-01f, 7.82777518e-02f, -1.60869300e-01f, 2.29864925e-01f },
{ 1.55996108e+00f, 9.08536315e-01f, -2.93512851e-01f, 8.36775079e-03f, 8.11907113e-01f, 1.50751340e+00f, -1.53888121e-01f, -1.42974451e-01f, 3.39522541e-01f },
{ 7.50143901e-02f, -7.42926300e-01f, 2.86975149e-02f, 4.21514094e-01f, -4.54080589e-02f, 1.52098164e-01f, -1.46495745e-01f, 2.06135288e-01f, 4.49936502e-02f },
{ -1.43628824e+00f, -3.73290509e-01f, 9.84849334e-01f, 2.15294218e+00f, -1.05444050e+00f, 7.55747139e-01f, -2.98700809e-01f, 1.40572160e-01f, -1.62495989e-02f },
{ -4.93770093e-01f, 1.05541694e+00f, -4.21057314e-01f, 4.43468273e-01f, -1.47637999e+00f, -1.51195252e+00f, -2.40060449e-01f, 4.78546798e-01f, -1.92731291e-01f },
{ -8.73711780e-02f, 4.99325812e-01f, -9.74376798e-01f, 2.76194835e+00f, -3.73560446e-03f, -3.87878323e+00f, 1.00085400e-01f, -8.48901051e-04f, 2.28246246e-02f },
{ -1.60295665e+00f, -7.21512198e-01f, -5.65077960e-01f, -5.69230795e-01f, -4.40208554e-01f, -1.21018755e+00f, 6.50392547e-02f, 7.26478770e-02f, -1.57332167e-01f },
{ -7.75839314e-02f, -2.04698324e+00f, -6.79648697e-01f, -4.63807583e-01f, -6.79720223e-01f, 7.26113141e-01f, -3.25687855e-01f, 4.19246048e-01f, -2.52332687e-01f },
{ -1.84593305e-01f, -1.97018668e-01f, -6.54395401e-01f, 2.63820495e-02f, 1.36902726e+00f, -2.94096351e-01f, 5.55090457e-02f, -1.88271433e-01f, 5.04891694e-01f },
{ -3.88827235e-01f, 9.60417986e-02f, 9.08091366e-01f, -3.28340265e-03f, 4.32535082e-01f, 1.75858748e+00f, 2.21081510e-01f, -1.30409552e-02f, -3.12360793e-01f },
{ -2.74522990e-01f, -1.60701311e+00f, -2.11265254e+00f, 1.86115742e+00f, 1.83381331e+00f, 7.04080239e-03f, -1.03464708e-01f, 3.32998373e-02f, 1.10226832e-01f },
{ 3.87826204e-01f, 3.15522522e-01f, 2.95326710e-01f, -2.31301799e-01f, -2.06217265e+00f, -4.72083479e-01f, 3.54908198e-01f, -2.83653855e-01f, 1.44219622e-01f },
{ 2.37404361e-01f, 8.77677619e-01f, 5.17144382e-01f, 7.88909376e-01f, 8.70928466e-01f, -2.39694357e+00f, -9.73345339e-03f, -8.05847421e-02f, -1.45567939e-01f },
{ -5.20202994e-01f, -1.91165829e+00f, 4.31283653e-01f, -1.10492527e-01f, 6.08768873e-02f, 1.75754797e+00f, -2.14298099e-01f, -2.83854127e-01f, 4.22846735e-01f },
{ -1.66441536e+00f, -3.52653712e-01f, 1.33956745e-01f, 2.73595119e+00f, -1.00274932e+00f, -9.20305073e-01f, -3.56202722e-01f, 5.12968659e-01f, -1.44720227e-01f },
{ -1.87342739e+00f, -3.40201735e-01f, 7.26109326e-01f, 1.71009398e+00f, 1.89461812e-01f, 6.80401385e-01f, 2.93945316e-02f, -5.66485785e-02f, -3.00143454e-02f },
{ 7.44770527e-01f, 2.13587526e-02f, 8.76368523e-01f, -5.63513458e-01f, 8.27304602e-01f, 5.13197899e-01f, -3.10586452e-01f, 5.67885876e-01f, -1.60118952e-01f },
{ -2.28412747e-01f, 1.25972831e+00f, -1.23817945e+00f, -3.59909594e-01f, -1.33898008e+00f, 2.23659134e+00f, -1.70039490e-01f, 2.57909745e-01f, -1.48723513e-01f },
{ -8.79052639e-01f, 1.33458614e+00f, 2.31408283e-01f, -1.02553856e+00f, -2.89315438e+00f, -1.20366991e+00f, -4.22128677e-01f, 5.87796271e-01f, -6.08373322e-02f },
{ 4.67130214e-01f, 3.97670120e-01f, -4.77374792e-01f, -9.34113145e-01f, -4.56955880e-02f, 2.49016061e-01f, 9.01455820e-01f, -1.52550116e-01f, -3.32847089e-01f },
{ 2.21623093e-01f, -8.30892622e-01f, -4.09294516e-01f, 8.06799829e-01f, -4.02547538e-01f, 1.54612809e-01f, -1.18936265e+00f, -2.10005581e-01f, 1.31282437e+00f },
{ -3.57106954e-01f, 8.98137391e-02f, -2.43306264e-01f, 4.75700885e-01f, 5.01572751e-02f, 1.11039186e+00f, -6.69721067e-01f, 2.75783330e-01f, 8.13883901e-01f },
{ 7.99751729e-02f, 3.26634645e-01f, 1.40867674e+00f, 1.38070738e+00f, -1.16532542e-01f, -2.25314587e-01f, -4.41637307e-01f, 1.54637605e-01f, 3.46714050e-01f },
{ 4.63862091e-01f, -4.52089161e-01f, -1.10720551e+00f, -1.21432626e+00f, 3.62746060e-01f, 4.27742779e-01f, -2.38359094e-01f, -1.31348014e-01f, 2.74853140e-01f },
{ -4.74340647e-01f, 1.12065208e+00f, -5.51443458e-01f, 3.08557093e-01f, 3.82121265e-01f, -6.30325794e-01f, 3.88278276e-01f, -5.14804184e-01f, 1.43488809e-01f },
{ -2.11172476e-01f, -1.42254925e+00f, -5.22202551e-01f, -8.76699015e-02f, 1.92669615e-01f, 5.03433645e-01f, 1.56660050e-01f, 1.80964872e-01f, -1.50832757e-01f },
{ 2.31674731e-01f, -2.31102079e-01f, 3.52174312e-01f, -2.46637851e-01f, -3.30785155e-01f, 2.46615157e-01f, -2.54075170e-01f, -5.59645712e-01f, 8.25625241e-01f },
{ -1.05251408e+00f, -2.15680853e-01f, -3.16591710e-02f, -5.79967946e-02f, -1.11644566e-01f, 6.36381209e-01f, 2.87833273e-01f, -3.43838483e-01f, 2.76945442e-01f },
{ 3.41248780e-01f, 7.38202706e-02f, -2.51009554e-01f, -8.37023377e-01f, -1.05437636e+00f, -5.49688041e-01f, -8.07154119e-01f, 3.24565291e-01f, 7.04646409e-02f },
{ -2.01316059e-01f, -6.06537580e-01f, -2.68585891e-01f, -1.09321129e+00f, 3.10209334e-01f, -2.35266015e-01f, 3.11284155e-01f, 4.69101220e-02f, -2.73993641e-01f },
{ 3.60167064e-02f, 5.06300807e-01f, -5.78390360e-01f, 3.46613899e-02f, 2.02950209e-01f, 8.69207799e-01f, -3.34404141e-01f, 5.42049825e-01f, -5.98540567e-02f },
{ -9.28708971e-01f, -7.98923612e-01f, -1.48760453e-01f, 9.07886446e-01f, -6.84733875e-03f, 1.05327903e-03f, 3.87588263e-01f, -2.53456742e-01f, -4.49417144e-01f },
{ -4.37458783e-01f, -1.47238821e-01f, -6.19208217e-01f, -1.27445376e+00f, 2.57006019e-01f, -1.13207273e-01f, 2.36288533e-01f, 3.09857517e-01f, -4.13592875e-01f },
{ 1.09074736e+00f, -5.31956136e-01f, -3.99566531e-01f, 3.57149392e-01f, -5.29446542e-01f, -4.05141860e-01f, 2.13367976e-02f, -1.71995200e-02f, -5.88192225e-01f },
{ 3.50279540e-01f, 3.51472735e-01f, -1.96403474e-01f, -3.93478662e-01f, -2.02598155e-01f, -1.33347273e+00f, 4.07896429e-01f, 1.72285140e-01f, -1.01912808e+00f }
};

const float GRU_WEIGHT_HH[48][16] PROGMEM = {
{ 4.93498892e-02f, 4.84259069e-01f, -1.05998945e+00f, 5.69561243e-01f, 7.45278180e-01f, -3.36255550e-01f, 2.39266545e-01f, -1.68638881e-02f, -1.93995550e-01f, -1.26693296e+00f, -3.81115228e-01f, -2.75080413e-01f, 9.17079329e-01f, -4.90069799e-02f, 6.75967515e-01f, -4.73214425e-02f },
{ 5.29868364e-01f, 8.00108373e-01f, -7.80382872e-01f, -2.34580159e-01f, 6.36700809e-01f, 1.00768849e-01f, -1.94836760e+00f, -1.60201561e+00f, -7.55158186e-01f, 4.06165272e-01f, 7.01604784e-01f, 1.46944070e+00f, -5.52682400e-01f, -1.00421059e+00f, 1.15714633e+00f, -7.25153565e-01f },
{ -1.53539884e+00f, -2.25466162e-01f, 4.71213758e-01f, 6.16507292e-01f, 6.14140689e-01f, 9.42528307e-01f, 1.38510013e+00f, 2.22869977e-01f, 3.15636426e-01f, 2.48561597e+00f, 1.63990185e-01f, -3.79462004e-01f, -6.27931058e-01f, -1.38707900e+00f, -2.28902504e-01f, -3.24709713e-01f },
{ 4.72222894e-01f, 5.22569776e-01f, 9.45448101e-01f, -6.49166226e-01f, 1.21598446e+00f, 3.47838402e-01f, 1.00244772e+00f, -1.82767704e-01f, 8.07491541e-02f, 9.29019213e-01f, -1.06988728e-01f, 4.31433409e-01f, 6.14534458e-03f, 9.55175996e-01f, 8.52591515e-01f, -7.14671100e-03f },
{ 1.55609393e+00f, -1.37330115e+00f, -1.25943303e+00f, -1.06054619e-01f, -1.60727656e+00f, -4.47797477e-01f, -1.03887773e+00f, -5.03453970e-01f, -3.85753900e-01f, -1.39214051e+00f, -2.10496813e-01f, 3.15267712e-01f, 1.00496602e+00f, 4.73569632e-01f, -2.69454867e-01f, 9.22943413e-01f },
{ -1.89107561e+00f, 5.00439525e-01f, 1.83459067e+00f, -5.73843777e-01f, 6.79962635e-01f, 2.19994053e-01f, 3.28353286e-01f, -2.04890460e-01f, -1.31059408e-01f, 8.30964386e-01f, -1.08659720e+00f, 6.59164965e-01f, -5.36679268e-01f, 9.25640911e-02f, -6.75184280e-02f, -1.08615220e+00f },
{ -1.88658118e-01f, 4.48352307e-01f, -2.63318539e-01f, -5.53504884e-01f, 8.16387832e-01f, -6.20119333e-01f, -1.94745194e-02f, -1.56455085e-01f, -1.33491278e+00f, 4.95318711e-01f, 8.31329823e-01f, 8.44524503e-01f, -9.23326910e-01f, -3.00019324e-01f, 7.81919181e-01f, -1.22499280e-01f },
{ 1.82964289e+00f, -7.55610883e-01f, -2.18509600e-01f, -5.19321680e-01f, -5.33191860e-02f, 7.52768338e-01f, 1.41921449e+00f, -1.58193803e+00f, -9.09706671e-03f, -4.63689476e-01f, -1.74230051e+00f, -5.20050526e-01f, 4.07728374e-01f, 7.70235956e-02f, -6.93576857e-02f, 2.00529531e-01f },
{ 1.08337834e-01f, 2.20906958e-01f, -1.43122578e+00f, 1.33235717e+00f, -8.27244878e-01f, -6.05044477e-02f, -2.31991124e+00f, 9.77227271e-01f, 6.77184403e-01f, -4.86801654e-01f, 1.20939426e-01f, -1.32769811e+00f, -1.47255313e+00f, -1.28443813e+00f, 1.36588740e+00f, 1.01573074e+00f },
{ 1.77034229e-01f, 9.45678353e-01f, 1.52732715e-01f, 5.29537737e-01f, 1.66080809e+00f, -6.99611843e-01f, 1.53064728e+00f, 1.02592802e+00f, 3.70329589e-01f, -3.91100645e-02f, 6.62366271e-01f, 2.78221250e-01f, -2.33592421e-01f, -9.24608171e-01f, -9.48952019e-01f, -5.19563496e-01f },
{ 3.48597080e-01f, 4.44323063e-01f, -4.74317342e-01f, -2.02142882e+00f, 1.40104282e+00f, -8.60479295e-01f, 3.13148618e-01f, -1.14198577e+00f, 4.11941379e-01f, 9.91257489e-01f, 1.26182461e+00f, 4.61189717e-01f, -8.76650393e-01f, -5.61506450e-01f, -9.27940249e-01f, -1.92717776e-01f },
{ 1.66563138e-01f, 6.18474901e-01f, -3.21780086e-01f, 1.04398698e-01f, 3.23239475e-01f, 1.12199962e+00f, -1.93231463e-01f, 1.58896661e+00f, -4.87918973e-01f, -1.14241397e+00f, 6.63467795e-02f, 6.39908671e-01f, 1.71791911e-01f, -1.99816711e-02f, -4.55708027e-01f, -4.43472385e-01f },
{ -1.63434684e+00f, -7.33012259e-02f, 1.10056293e+00f, 1.30242300e+00f, -1.51993737e-01f, -6.29662037e-01f, 1.04804802e+00f, 3.01184386e-01f, 4.99186456e-01f, 8.72944653e-01f, -1.33521628e+00f, -1.23747170e+00f, 8.24742675e-01f, -1.03316617e+00f, -1.50941968e+00f, -4.54237878e-01f },
{ -7.38851028e-03f, -3.19361895e-01f, -7.31439948e-01f, 1.55409205e+00f, -4.53142762e-01f, 7.80965507e-01f, -8.91835809e-01f, 1.23515666e-01f, 7.91515112e-01f, 1.93053901e-01f, -8.96315813e-01f, -1.43984902e+00f, 5.37457764e-01f, -6.41869724e-01f, -1.04329050e+00f, 2.16390863e-01f },
{ 2.05465019e-01f, -1.85209028e-02f, 3.65793593e-02f, -2.87341587e-02f, 3.11196029e-01f, -1.10482350e-01f, 2.09787893e+00f, -3.29302512e-02f, 3.13400447e-01f, 4.76218134e-01f, 2.87662655e-01f, 4.43862617e-01f, -2.83395886e-01f, -6.09729923e-02f, 9.16585505e-01f, -3.66586566e-01f },
{ 5.33728659e-01f, 3.37753206e-01f, -8.70378494e-01f, 6.06893227e-02f, 1.84374797e+00f, -9.14644171e-03f, -1.52452362e+00f, -1.40681818e-01f, 7.37013876e-01f, -3.30027610e-01f, -3.19231534e-03f, 5.48282206e-01f, 5.14392294e-02f, -4.73656595e-01f, -8.45365748e-02f, 6.42686784e-01f },
{ 4.58534658e-01f, -4.26572040e-02f, -1.68684292e+00f, -7.93157697e-01f, -5.03972232e-01f, 2.08688235e+00f, -1.66863978e-01f, 4.56051230e-01f, 1.35742402e+00f, -1.76650417e+00f, -2.33021826e-01f, -1.85934699e+00f, 1.44037318e+00f, 2.50392652e+00f, 8.97975802e-01f, -1.07271686e-01f },
{ -5.48237920e-01f, 1.08330262e+00f, -1.92121893e-01f, 1.81110489e+00f, 1.92774728e-01f, 5.82802415e-01f, -1.15454364e+00f, 9.26539600e-01f, 1.87886453e+00f, -9.31330860e-01f, -7.24980175e-01f, -4.28542405e-01f, 1.73867297e+00f, -5.37740648e-01f, 1.61371195e+00f, 8.52500573e-02f },
{ -2.27014363e-01f, 4.82825965e-01f, 1.83813944e-01f, -1.36256218e+00f, 5.39084435e-01f, -8.64352763e-01f, 1.98543453e+00f, 7.77762651e-01f, -3.96530241e-01f, -1.30279136e+00f, 3.04496616e-01f, 9.03896630e-01f, -6.98084474e-01f, 6.46529496e-01f, 1.40223777e+00f, 4.57931161e-01f },
{ -4.07902300e-02f, 7.77685761e-01f, -1.95332277e+00f, -1.23033261e+00f, 2.70961308e+00f, 1.17781043e+00f, 1.69216228e+00f, 1.79759800e-01f, 1.83228207e+00f, 1.60905272e-01f, -1.44866729e+00f, 1.70201957e+00f, 1.28384686e+00f, -1.38259560e-01f, -2.48834699e-01f, -2.57258236e-01f },
{ -1.18163347e+00f, 1.07127416e+00f, -1.19456589e+00f, 1.70477629e+00f, -9.76663411e-01f, -5.93647659e-02f, -8.17037344e-01f, 1.35631132e+00f, 1.84924111e-01f, 9.08165753e-01f, -3.07995796e-01f, 1.36741906e-01f, -2.54520625e-01f, 6.12034500e-01f, -5.42103648e-01f, -1.11870253e+00f },
{ 6.26953363e-01f, 8.89071047e-01f, -2.51589847e+00f, 8.51844788e-01f, 9.23688829e-01f, 5.07005990e-01f, -1.03025818e+00f, 2.73748934e-01f, 5.08945942e-01f, -2.12963796e+00f, -2.25261599e-02f, -1.03006728e-01f, -7.47188807e-01f, -3.81353527e-01f, 1.77615833e+00f, 6.42060935e-01f },
{ -8.06534529e-01f, -1.26007438e+00f, 1.61097991e+00f, -7.92925954e-01f, -1.97417557e+00f, -1.00203550e+00f, 1.01119215e-02f, 3.41363162e-01f, -4.51930076e-01f, 4.22579557e-01f, 1.37032151e-01f, -5.73222302e-02f, -3.38057965e-01f, 1.01477945e+00f, -1.27531862e+00f, 2.80893356e-01f },
{ 2.20526889e-01f, 7.32158184e-01f, -8.13529372e-01f, -1.05046141e+00f, 1.69130370e-01f, 2.47000384e+00f, 1.25142872e+00f, -1.14548957e+00f, 2.34721828e+00f, -1.35477090e+00f, -7.79736102e-01f, -1.88411403e+00f, 2.01984048e+00f, 1.13859320e+00f, 1.02681923e+00f, -7.52355814e-01f },
{ 2.34034032e-01f, 5.78497648e-01f, -4.65826154e-01f, -8.68933439e-01f, 2.25352335e+00f, 1.90764844e-01f, 1.87614965e+00f, 1.36455584e+00f, 4.32294607e-01f, -1.44529426e+00f, 5.73153272e-02f, -1.02882934e+00f, -1.76822349e-01f, -1.25332579e-01f, 1.46242905e+00f, -2.42206708e-01f },
{ -1.99512374e+00f, -7.20682085e-01f, 6.27138019e-01f, 7.27681100e-01f, 1.53861654e+00f, -9.41724181e-01f, -4.15607184e-01f, 2.14861035e+00f, 1.12845540e+00f, -2.22410512e+00f, -3.44132137e+00f, -5.00011563e-01f, -6.16370082e-01f, -1.73630521e-01f, 2.41251373e+00f, -1.12145936e+00f },
{ -1.39463019e+00f, 6.90493762e-01f, -4.72662412e-02f, 7.66384959e-01f, -1.49665463e+00f, 1.38059571e-01f, 5.73450267e-01f, 1.05457056e+00f, 5.62387668e-02f, 4.38803822e-01f, 9.87677157e-01f, -5.00351906e-01f, -9.14817527e-02f, 3.28153431e-01f, -3.38926852e-01f, 2.05289423e-01f },
{ 9.24846888e-01f, 1.18901551e+00f, 2.60839965e-02f, 1.49307370e+00f, -7.94980824e-02f, 9.74461377e-01f, 2.49576628e-01f, 4.36570078e-01f, 9.32526216e-02f, 7.19489396e-01f, 6.56377792e-01f, 3.70707840e-01f, 7.63853043e-02f, 7.83217326e-02f, 1.45342076e+00f, -1.38326615e-01f },
{ -1.44433528e-01f, 7.42659330e-01f, -4.03609425e-01f, -8.84405196e-01f, 9.45740283e-01f, -4.15362358e-01f, -2.44425964e+00f, -1.55407354e-01f, 2.12947309e-01f, -8.19276497e-02f, -1.74068010e+00f, 8.16856027e-01f, -2.14520383e+00f, 6.91354334e-01f, 1.14403999e+00f, -3.81756306e-01f },
{ -8.76811743e-01f, -2.52394289e-01f, -5.46955705e-01f, 1.05610788e+00f, 1.67183900e+00f, -2.92571843e-01f, 1.92451274e+00f, 9.23966527e-01f, -3.22868288e-01f, 1.45768106e+00f, -8.52563262e-01f, 3.97093862e-01f, 9.20738205e-02f, -3.51759464e-01f, -4.93989617e-01f, -1.03587344e-01f },
{ 8.04947019e-01f, 1.84501827e+00f, 8.19763720e-01f, 9.05392945e-01f, -5.34630001e-01f, 1.03955305e+00f, 1.06433284e+00f, 9.34725404e-02f, -4.13848996e-01f, 3.30862403e-01f, -6.88849747e-01f, -8.68250906e-01f, 5.39552271e-01f, -7.58533776e-01f, 7.28219211e-01f, 1.12543687e-01f },
{ 4.95000392e-01f, -5.69248557e-01f, 2.80049890e-01f, 1.45006466e+00f, -1.51738608e+00f, 9.21376586e-01f, 6.83241487e-02f, 2.10791612e+00f, 7.56200612e-01f, -1.83191097e+00f, -2.09899068e+00f, -1.52632356e-01f, 1.25215149e+00f, 6.63580656e-01f, 1.14257312e+00f, 2.05208078e-01f },
{ -1.85177013e-01f, 6.33370876e-01f, 2.34837979e-02f, -5.06230474e-01f, 5.60018063e-01f, 6.35413170e-01f, -1.63703263e-01f, -2.06173897e-01f, 3.97829741e-01f, 6.45539045e-01f, 1.09724808e+00f, -3.72884870e-01f, -2.88229674e-01f, 3.17573287e-02f, -4.29397449e-02f, 4.15630192e-01f },
{ -1.29451221e-02f, 3.22286278e-01f, -1.25730085e+00f, 2.77379572e-01f, -3.48195612e-01f, -4.37295258e-01f, 6.51335359e-01f, -2.96595633e-01f, 9.83310789e-02f, -6.00979805e-01f, 3.88893276e-01f, 4.17669445e-01f, -6.55142725e-01f, -1.23953450e+00f, -7.09629357e-01f, -5.63334882e-01f },
{ -4.39252883e-01f, 6.53870583e-01f, 7.88732290e-01f, 3.24169278e-01f, -1.02042053e-02f, -3.29591781e-01f, 9.99761462e-01f, 1.45207322e+00f, -4.19900864e-02f, 9.61379558e-02f, 7.57259503e-02f, -5.98220944e-01f, -4.59995836e-01f, 5.55649698e-01f, -6.55092776e-01f, 2.39425465e-01f },
{ -3.01232189e-01f, -3.47342461e-01f, -3.07404876e-01f, 1.12789106e+00f, -3.38220417e-01f, -4.46332753e-01f, -2.86258310e-01f, -1.09288998e-01f, 4.99000132e-01f, -8.89875233e-01f, -2.29420260e-01f, -2.25537553e-01f, 3.59622359e-01f, -9.55733776e-01f, 1.54201895e-01f, -5.27781427e-01f },
{ -5.56996703e-01f, 2.75710791e-01f, -1.27208591e-01f, 2.01246068e-01f, -3.55976611e-01f, -6.93568349e-01f, 7.10291624e-01f, 1.84906924e+00f, -1.14196789e+00f, -9.11333621e-01f, 6.39752090e-01f, 4.02522147e-01f, -7.01308429e-01f, -1.24089074e+00f, -5.48899114e-01f, -9.34909165e-01f },
{ -3.25452358e-01f, -8.45179737e-01f, 8.39229882e-01f, -1.58338845e+00f, -1.66554257e-01f, -1.76952645e-01f, 5.94476640e-01f, -4.22056794e-01f, -4.92034018e-01f, 3.94162118e-01f, -2.84532886e-02f, -3.43621999e-01f, -1.66385949e-01f, 6.32517874e-01f, -7.38245726e-01f, 2.50708442e-02f },
{ -5.02971947e-01f, 5.48796117e-01f, -2.25292712e-01f, 2.67129034e-01f, 3.25414628e-01f, 3.97714227e-01f, 1.55798495e+00f, 7.79907763e-01f, 3.72611612e-01f, -5.50349392e-02f, -2.61017770e-01f, -8.04188132e-01f, -2.19414085e-02f, 4.30065930e-01f, -1.57100260e-01f, 2.21964642e-01f },
{ -5.02632916e-01f, 2.50333726e-01f, -9.31196332e-01f, 9.64483321e-01f, -5.33577740e-01f, -1.83401525e-01f, -7.52151087e-02f, 9.42903757e-01f, -2.87548512e-01f, 3.28884572e-02f, -1.75564528e-01f, 2.01826304e-01f, -4.02152777e-01f, -3.24678332e-01f, 9.45863128e-01f, 6.42991841e-01f },
{ -3.88953418e-01f, 4.57448125e-01f, -3.61562520e-01f, 7.35142231e-01f, -1.16324842e-01f, -1.58389032e-01f, -5.06781697e-01f, 1.74008995e-01f, 1.03652728e+00f, 1.46330059e+00f, -1.91930398e-01f, -4.74991649e-01f, 1.23538256e+00f, 1.19903338e+00f, -1.34020603e+00f, -1.52015584e-02f },
{ -4.52893496e-01f, -4.38219756e-01f, -4.88987088e-01f, 9.62095261e-01f, -1.15177023e+00f, -4.58521217e-01f, 2.63301313e-01f, -1.02156043e+00f, -5.19562423e-01f, -1.87892407e-01f, 1.02424157e+00f, 8.77906144e-01f, -4.18445110e-01f, -2.97013640e-01f, -2.67826337e-02f, 7.22824454e-01f },
{ -7.21685469e-01f, 8.84674549e-01f, -1.29143751e+00f, 1.18649077e+00f, -2.94308573e-01f, -2.41139829e-01f, -2.26640001e-01f, 1.15546554e-01f, 2.49948695e-01f, 9.63644743e-01f, 5.33649266e-01f, 7.58484453e-02f, -8.11466277e-02f, -6.23733737e-02f, -4.06407952e-01f, -7.54870236e-01f },
{ 9.65019524e-01f, -5.83132625e-01f, 6.76810816e-02f, -5.50287008e-01f, -2.67884023e-02f, 6.41876519e-01f, -2.06246272e-01f, 3.02450985e-01f, -7.63831377e-01f, 3.51402998e-01f, -3.80871058e-01f, 1.39313984e+00f, -6.14618883e-03f, -2.35912129e-01f, 9.28499818e-01f, -1.67531550e-01f },
{ -2.57645071e-01f, 8.02404761e-01f, -9.70602706e-02f, 2.88848907e-01f, 1.26407447e-03f, 9.20198917e-01f, 7.61370420e-01f, -9.54352260e-01f, -6.02804013e-02f, 2.89843455e-02f, -4.02621984e-01f, 6.27542362e-02f, 8.03754449e-01f, 8.84950936e-01f, -5.27457178e-01f, 3.94572198e-01f },
{ -9.83810052e-02f, -1.86443701e-01f, -3.55727673e-01f, -3.69381934e-01f, 2.40746766e-01f, 7.44868875e-01f, -2.78217316e-01f, -4.77958173e-01f, 1.42226323e-01f, 1.14859946e-01f, 8.79634023e-01f, 9.06989336e-01f, -1.84602007e-01f, 1.43584919e+00f, -5.14252663e-01f, -1.41592726e-01f },
{ 6.48585975e-01f, -5.38494289e-01f, -5.46010137e-01f, -5.85605562e-01f, -4.99471158e-01f, -6.83269978e-01f, -3.61879259e-01f, -2.51080871e-01f, -4.56936806e-02f, -8.89563084e-01f, -2.52290040e-01f, -2.18627319e-01f, -5.92046618e-01f, 1.36491835e-01f, 9.28484738e-01f, 5.85624278e-02f },
{ 1.22227144e+00f, -9.43816230e-02f, 4.61929679e-01f, -1.45187759e+00f, -2.74012238e-01f, 5.93637228e-01f, 2.16881305e-01f, 8.95344198e-01f, 2.96005547e-01f, -2.52882361e-01f, -7.81013548e-01f, -4.20594096e-01f, -1.43381268e-01f, 1.15803137e-01f, -2.43893787e-01f, 6.56824768e-01f }
};

const float GRU_BIAS_IH[48] PROGMEM = { -4.45771366e-01f, 5.28426655e-02f, -1.72091246e-01f, 2.05582857e-01f, 6.40764832e-01f, -2.43240863e-01f, -1.18383817e-01f, 3.07297945e-01f, 4.60975707e-01f, -2.43402481e-01f, -3.99758331e-02f, -3.97933900e-01f, -2.64718682e-01f, 2.56095678e-01f, -5.79364300e-01f, 5.30172706e-01f, -1.49876463e+00f, -7.43130922e-01f, -1.47938719e-02f, -1.04311001e+00f, -7.23543882e-01f, -8.81377084e-04f, 3.38244587e-01f, -6.10819936e-01f, -1.33841336e-01f, -1.14373195e+00f, 5.85888326e-01f, -5.45552149e-02f, -8.93737614e-01f, -8.35302770e-02f, -2.55651981e-01f, -3.99726659e-01f, 2.02388212e-01f, -3.29924434e-01f, 2.92228281e-01f, -1.53770640e-01f, -5.05748153e-01f, 9.69652738e-03f, 1.87207460e-01f, -1.43101379e-01f, 1.15459047e-01f, -1.47685960e-01f, 2.35367775e-01f, -1.79750800e-01f, 1.61996424e-01f, 1.35401607e-01f, -5.10634840e-01f, 1.82549339e-02f };

const float GRU_BIAS_HH[48] PROGMEM = { -4.32847917e-01f, 1.56554654e-01f, -1.10707112e-01f, -2.87658840e-01f, 6.87866211e-01f, -8.81858096e-02f, -2.96026766e-01f, 5.51434398e-01f, 2.15036750e-01f, -2.39006341e-01f, -2.07730174e-01f, -4.25876588e-01f, -3.66689652e-01f, 2.53469884e-01f, -6.19431615e-01f, 1.38784200e-01f, -1.44146025e+00f, -5.44989765e-01f, -2.74806321e-01f, -8.05267274e-01f, -5.37477255e-01f, -3.10553789e-01f, 2.82495230e-01f, -3.66657287e-01f, -3.30079317e-01f, -8.43210638e-01f, 1.56958669e-01f, -1.23399906e-01f, -7.48671532e-01f, 2.11195782e-01f, -3.34947973e-01f, -3.59992802e-01f, -2.88204160e-02f, 5.10822952e-01f, 1.22899897e-01f, -9.79004353e-02f, -4.80832122e-02f, 5.21382689e-01f, 1.83252618e-01f, -6.75243497e-01f, 1.66074827e-01f, 6.63450360e-01f, -2.33622834e-01f, 1.28468394e-01f, 3.69209051e-01f, -4.39021215e-02f, 4.54198793e-02f, 1.77717492e-01f };

const float HEAD_WEIGHT[3][16] PROGMEM = {
{ -7.66360700e-01f, -1.91074312e+00f, -2.21304148e-02f, -1.45800877e+00f, -2.19613500e-02f, -1.53011829e-01f, 8.49576235e-01f, -6.53966129e-01f, 8.21871817e-01f, -1.03415263e+00f, -1.05738437e+00f, -5.16356528e-01f, 9.38551366e-01f, 2.77234405e-01f, 6.18154347e-01f, 1.21768832e+00f },
{ 4.41233158e-01f, -4.29012448e-01f, 1.11467171e+00f, 1.12183243e-01f, -7.82971203e-01f, -1.19484282e+00f, -7.81948030e-01f, -1.97405130e-01f, -1.28419805e+00f, -8.65593646e-03f, 1.07428563e+00f, 7.31085718e-01f, -3.31489712e-01f, -2.28923276e-01f, -7.11395085e-01f, 1.07345104e+00f },
{ -7.40822330e-02f, 1.95527112e+00f, -8.14536989e-01f, 1.32044315e+00f, 1.25208509e+00f, 1.35346079e+00f, -6.51392564e-02f, 8.22940230e-01f, 6.14750922e-01f, 1.34338820e+00f, -7.85524771e-03f, -4.69125152e-01f, -9.43507850e-01f, -3.07547897e-01f, 8.51953149e-01f, -1.86751211e+00f }
};

const float HEAD_BIAS[3] PROGMEM = { 4.41588193e-01f, -1.52780250e-01f, -3.88565749e-01f };

