#pragma once
#include <Arduino.h>
#include <avr/pgmspace.h>

const int AI_INPUT_SIZE = 11;
const int AI_HIDDEN_SIZE = 8;
const int AI_ACTION_SIZE = 3;

// Input order:
// 0  = front
// 1  = front_delta
// 2  = front_right
// 3  = front_right_delta
// 4  = rear_right
// 5  = rear_right_delta
// 6  = right_angle = front_right - rear_right
// 7  = right_angle_delta = front_right_delta - rear_right_delta
// 8  = prev_wa
// 9  = prev_w
// 10 = prev_wd

// Output order:
// 0 = wa
// 1 = w
// 2 = wd

// PyTorch GRU gate order: reset, update, new
// rows 0..7   = reset gate r
// rows 8..15  = update gate z
// rows 16..23 = new gate n

const float GRU_WEIGHT_IH[24][11] PROGMEM = {
{ -5.39666712e-01f, -3.84628236e-01f, 6.61194503e-01f, 4.70959574e-01f, 6.07040942e-01f, 1.96794242e-01f, 1.16691753e-01f, -1.29080191e-01f, 3.19679752e-02f, -1.40054198e-03f, -2.76866835e-02f },
{ 2.56911159e-01f, -2.92306602e-01f, -4.33998108e-01f, -2.74720073e-01f, 5.09104021e-02f, 6.85025573e-01f, -6.02251031e-02f, 1.83176517e-01f, 4.20240425e-02f, 1.73303746e-02f, -4.79409695e-02f },
{ 7.34367371e-02f, -1.18412375e-01f, 2.64833599e-01f, -9.43827331e-02f, 1.52349979e-01f, 3.43506224e-02f, -3.67838889e-01f, 1.19959950e-01f, -3.20689054e-03f, 7.45149376e-03f, -1.63052566e-02f },
{ -6.11196101e-01f, -1.17975926e+00f, 1.38021447e-02f, -1.51105374e-01f, 3.38127285e-01f, 5.26971400e-01f, 3.39040160e-01f, 2.18384489e-01f, 5.86761013e-02f, -3.49837542e-02f, -1.76036004e-02f },
{ -1.41410396e-01f, -6.65623024e-02f, 2.15695202e-02f, -2.63495922e-01f, 7.99247801e-01f, 1.54207850e+00f, -4.12679315e-01f, -4.60791051e-01f, -3.13895643e-02f, 1.43352356e-02f, -2.92648468e-03f },
{ -3.67176116e-01f, 9.11056548e-02f, 4.33844388e-01f, -7.89787844e-02f, 1.25583434e+00f, 9.56903100e-01f, 9.69490688e-03f, -2.21749976e-01f, 3.85148227e-02f, -7.06719831e-02f, 2.54891291e-02f },
{ -2.80997872e-01f, -6.90845773e-02f, -6.46330342e-02f, -9.22406241e-02f, 1.69403410e+00f, 1.62511349e+00f, -1.10709882e+00f, -6.26682937e-01f, 1.27711967e-02f, 3.83343399e-02f, -6.25200272e-02f },
{ 1.87787339e-01f, 2.53311396e-01f, -1.31293803e-01f, -3.45489502e-01f, 1.97789800e+00f, 1.54507399e+00f, -6.99926540e-03f, 2.44982973e-01f, -6.95945323e-02f, -4.70163412e-02f, 6.79753050e-02f },
{ -2.13135505e+00f, -2.05934691e+00f, -1.57543671e+00f, -1.68972754e+00f, -1.47186649e+00f, -2.04800534e+00f, -2.34800267e+00f, -2.05852270e+00f, 1.52684552e-05f, 1.02602644e-06f, -5.59374621e-06f },
{ -3.48347187e-01f, 1.62803784e-01f, 2.55451560e-01f, -2.64807045e-02f, 3.95366400e-01f, 8.52648795e-01f, -6.93001926e-01f, -6.52885914e-01f, 2.41668592e-03f, -3.97983566e-02f, 3.84947434e-02f },
{ -1.16875851e+00f, -1.03447986e+00f, -1.69601440e+00f, -1.88959622e+00f, -1.24317968e+00f, -8.76831889e-01f, -7.19818532e-01f, -8.18182766e-01f, 8.68340067e-06f, -5.16125401e-05f, 8.36975814e-05f },
{ 9.23993826e-01f, 8.40429485e-01f, 8.08469728e-02f, -1.40372664e-01f, 3.99638414e-01f, 8.31121087e-01f, -3.07876736e-01f, -1.42842755e-01f, -3.13354731e-02f, 9.43237245e-02f, -7.32699782e-02f },
{ 3.12118769e-01f, 3.24142635e-01f, -1.04076073e-01f, 4.38029468e-01f, 1.64381951e-01f, 1.52124256e-01f, 6.26388967e-01f, 1.06952310e+00f, -7.82114454e-03f, 5.50113851e-03f, -1.79469294e-04f },
{ 2.02385504e-02f, -2.21094728e-01f, -4.71251369e-01f, -6.48458719e-01f, -3.51323813e-01f, -8.95182550e-01f, -1.14081442e+00f, -8.26596916e-01f, 5.73987700e-03f, 1.58810951e-02f, -1.13038225e-02f },
{ -3.96658480e-01f, -2.51870304e-01f, -8.44101191e-01f, -3.61012846e-01f, -1.05035055e+00f, -9.36055243e-01f, -9.10356343e-01f, -1.17833960e+00f, 4.05973569e-03f, 4.55708131e-02f, -3.94434109e-02f },
{ -1.83502555e+00f, -1.72140193e+00f, -1.50610387e+00f, -1.64622116e+00f, -1.55161822e+00f, -1.43294549e+00f, -2.03226590e+00f, -1.66486597e+00f, -4.90148450e-05f, -1.90927203e-05f, 3.22142150e-05f },
{ -5.79726040e-01f, -6.13309778e-02f, 2.17697561e-01f, -2.29750335e-01f, 6.63831830e-02f, -2.12082595e-01f, 8.48948732e-02f, -2.35225022e-01f, 4.53940392e-01f, -1.79309547e-01f, -1.97491795e-01f },
{ -8.72687399e-02f, 4.73758996e-01f, -4.16840501e-02f, 2.29494855e-01f, -4.47471533e-03f, -4.50359911e-01f, 5.85440218e-01f, 5.91949344e-01f, -2.52876341e-01f, 3.25138867e-02f, 1.83957279e-01f },
{ -4.49609384e-02f, 1.55077606e-01f, 1.27814174e-01f, 3.42741936e-01f, -2.06229940e-01f, -1.99869841e-01f, 3.95722017e-02f, 4.15705860e-01f, 1.16238870e-01f, 3.79545093e-01f, -3.98391098e-01f },
{ 8.04826140e-01f, 7.68356740e-01f, 2.48967767e-01f, -1.20255299e-01f, 2.51824826e-01f, 2.09870577e-01f, 7.15750828e-03f, -3.95584047e-01f, 8.09011236e-03f, -1.05194077e-02f, 6.33461028e-02f },
{ 6.26219884e-02f, -1.28357098e-01f, -7.91468799e-01f, -7.93433249e-01f, 3.55266452e-01f, 7.47730657e-02f, -5.92769384e-01f, -2.60256976e-01f, 7.43965358e-02f, -5.42436577e-02f, -1.95858832e-02f },
{ 2.57649928e-01f, 6.39239669e-01f, -2.42086872e-01f, -1.74058601e-01f, -3.82687747e-01f, -3.24447364e-01f, -4.83771525e-02f, 1.34251982e-01f, 4.26142603e-01f, -4.43690643e-02f, -3.37674528e-01f },
{ 2.49721017e-02f, 1.38341054e-01f, -2.80394763e-01f, -3.53302434e-02f, 2.64103830e-01f, 3.01258098e-02f, -5.65253533e-02f, 3.34273130e-01f, -8.71406794e-02f, 1.21316470e-01f, -6.25246987e-02f },
{ 2.24524125e-01f, 8.39933082e-02f, 1.16126284e-01f, 2.03824669e-01f, -4.10902232e-01f, -1.09300032e-01f, 2.07279474e-01f, 8.62898976e-02f, 4.26475823e-01f, 3.04923564e-01f, -4.73721027e-01f }
};

const float GRU_WEIGHT_HH[24][8] PROGMEM = {
{ -2.39619121e-01f, -7.05190361e-01f, 5.28724909e-01f, -4.48246539e-01f, -1.88873649e-01f, -1.86659813e+00f, 8.11437488e-01f, -1.14621058e-01f },
{ -1.55687243e-01f, -2.77638346e-01f, -6.07381940e-01f, -3.59160721e-01f, 3.08340490e-01f, 2.17697039e-01f, 6.68970764e-01f, -6.89369202e-01f },
{ -2.20420778e-01f, -6.59252629e-02f, -6.79605603e-02f, -9.40760374e-01f, -8.72184560e-02f, 1.70753539e-01f, -2.37644032e-01f, 3.27705115e-01f },
{ -2.90619671e-01f, -4.55773830e-01f, -3.54061276e-01f, -4.22222883e-01f, 4.37532254e-02f, -9.95836198e-01f, -5.43642700e-01f, -6.45917237e-01f },
{ 1.39951974e-01f, -9.83978808e-01f, -9.09294009e-01f, -9.28784013e-01f, 5.76545954e-01f, -1.17092144e+00f, 5.84174156e-01f, 8.03940356e-01f },
{ 3.86140734e-01f, -5.18818974e-01f, -1.05615962e+00f, -7.11980909e-02f, -1.50141656e-01f, -1.19499767e+00f, -4.63676751e-01f, -1.90259647e+00f },
{ -2.12489635e-01f, -8.21083367e-01f, -3.60149950e-01f, -1.00275135e+00f, 7.55288303e-01f, -8.46040189e-01f, -1.51920721e-01f, -1.42847523e-02f },
{ 1.35023490e-01f, -5.78352362e-02f, 2.68944856e-02f, -7.69947171e-02f, -1.51168257e-01f, -3.86227846e-01f, 1.78439900e-01f, 2.55015284e-01f },
{ -4.08743620e-01f, 1.63815820e+00f, -9.37192380e-01f, -1.18907019e-01f, 2.98807859e+00f, 4.21046436e-01f, -6.34503424e-01f, -1.16468024e+00f },
{ 7.63451874e-01f, -1.85567379e-01f, 5.86448491e-01f, 2.86431432e-01f, 3.37481648e-01f, 2.46498168e-01f, -2.49979436e-01f, 1.16320562e+00f },
{ 3.93909097e-01f, 1.36372030e+00f, -1.01546183e-01f, -8.66912544e-01f, 1.79614472e+00f, 1.58958888e+00f, 1.81846961e-01f, -3.60811889e-01f },
{ -1.82598329e+00f, 4.20699745e-01f, 1.29635227e+00f, -2.54547238e-01f, 1.26763737e+00f, 2.65993595e-01f, 2.89196223e-01f, -4.25677150e-02f },
{ 7.05568969e-01f, -9.03089568e-02f, -2.74928927e-01f, -1.30029690e+00f, 1.96349359e+00f, 6.27720594e-01f, -5.89003146e-01f, -2.27777109e-01f },
{ -1.55286050e+00f, 4.54102546e-01f, -1.68352127e-01f, 1.04053783e+00f, 1.03642464e+00f, 7.68854916e-01f, -1.77660954e+00f, -8.00904989e-01f },
{ -1.86052322e+00f, -1.29372180e-01f, 7.81974375e-01f, 2.04547024e+00f, -2.52209119e-02f, 8.89594294e-03f, -3.96531433e-01f, -1.35248590e+00f },
{ -1.06533036e-01f, 2.01519802e-01f, 2.31042117e-01f, -5.24072886e-01f, 1.24182594e+00f, 1.97288799e+00f, -7.15463161e-01f, -7.54223242e-02f },
{ -4.52847891e-02f, 2.12984666e-01f, 1.84494406e-01f, -1.06348312e+00f, -6.48214042e-01f, -3.51322919e-01f, -4.91065606e-02f, -6.23527020e-02f },
{ -2.25370154e-01f, 1.90557629e-01f, 3.16948831e-01f, 1.16687261e-01f, 4.48868424e-01f, -1.09234639e-01f, -4.74884361e-01f, 2.02294052e-01f },
{ -3.85124356e-01f, -6.63092017e-01f, 1.56169176e-01f, -7.30468571e-01f, -1.92369655e-01f, 3.36825013e-01f, -1.36730328e-01f, -6.58604875e-02f },
{ -5.99487126e-01f, -3.20221066e-01f, -6.54899597e-01f, 7.76151001e-01f, 4.63515431e-01f, 4.11736131e-01f, -2.80479670e-01f, -8.35881233e-02f },
{ -3.63168329e-01f, 3.95674825e-01f, -1.88277304e+00f, 4.32566166e-01f, 4.61519837e-01f, 2.62991369e-01f, -3.22440714e-01f, -4.64050651e-01f },
{ 8.08611214e-01f, -2.96413004e-01f, -5.81867397e-02f, -2.48468533e-01f, -2.27443516e-01f, 5.11673629e-01f, 7.95055330e-01f, 1.57167554e-01f },
{ -4.83466268e-01f, 1.03188121e+00f, -7.06182837e-01f, 2.93972760e-01f, 3.40756178e-01f, -1.68953568e-01f, 1.05805910e+00f, 5.04751980e-01f },
{ 9.48006392e-01f, 5.53383052e-01f, -2.57193327e-01f, -1.04752135e+00f, 4.09531116e-01f, -3.54581773e-02f, -5.56885488e-02f, 3.53962481e-01f }
};

const float GRU_BIAS_IH[24] PROGMEM = { 4.16574061e-01f, 3.71574014e-01f, 1.83527648e-01f, 1.18982062e-01f, 5.02098620e-01f, -6.23468637e-01f, 5.85860729e-01f, -2.12061644e-01f, -1.70824289e+00f, -2.68828571e-01f, -1.90553844e+00f, -2.17900217e-01f, 6.17431775e-02f, -6.47786677e-01f, -9.07965779e-01f, -1.20822215e+00f, 1.55547857e-01f, -4.74144161e-01f, 6.95261639e-03f, -2.13012502e-01f, 1.41613096e-01f, -2.03015320e-02f, 2.16907356e-02f, 4.42824870e-01f };

const float GRU_BIAS_HH[24] PROGMEM = { 3.02115530e-02f, -5.57471886e-02f, -2.87625939e-01f, 1.70587867e-01f, 2.88717896e-01f, -2.84116566e-01f, 4.52495664e-01f, 2.82328967e-02f, -1.94867671e+00f, -1.84676349e-01f, -1.70283508e+00f, -4.43425588e-02f, -9.55582708e-02f, -5.98657429e-01f, -5.55816174e-01f, -1.42283642e+00f, 1.31295389e-02f, -6.83441341e-01f, 1.27036944e-01f, -2.07706809e-01f, -1.96081489e-01f, -1.00652725e-02f, 2.87557751e-01f, 3.83435860e-02f };

const float HEAD_WEIGHT[3][8] PROGMEM = {
{ 2.32525086e+00f, 4.19833094e-01f, 3.07196289e-01f, -1.50966358e+00f, -7.03795075e-01f, 2.33317494e+00f, -1.37295783e+00f, 8.73994708e-01f },
{ -7.29707778e-01f, -1.00449026e+00f, 8.71742189e-01f, 6.48703635e-01f, 1.99762657e-01f, -6.86201751e-01f, 9.66469407e-01f, 1.01902401e+00f },
{ -1.06628859e+00f, 1.40615010e+00f, -1.10716450e+00f, 3.49567980e-01f, 2.36773953e-01f, -1.16808677e+00f, -2.35157356e-01f, -2.43813300e+00f }
};

const float HEAD_BIAS[3] PROGMEM = { 5.13991714e-01f, 2.71704435e-01f, -7.14801431e-01f };

