#pragma once

const int AI_INPUT_SIZE = 11;
const int AI_HIDDEN_SIZE = 8;
const int AI_ACTION_SIZE = 5;

// PyTorch GRU gate order: reset, update, new
// rows 0..7   = reset gate r
// rows 8..15  = update gate z
// rows 16..23 = new gate n

const float GRU_WEIGHT_IH[24][11] PROGMEM = {
{ 1.73235023e+00f, -3.86491513e+00f, -9.34269309e-01f, 2.19829583e+00f, -9.94000733e-01f, 3.35383940e+00f, -1.70223248e+00f, 2.29248595e+00f, -2.09401941e+00f, 1.01659620e+00f, -2.82606155e-01f },
{ 4.91433203e-01f, -6.18796587e-01f, -4.88363314e+00f, -5.72428894e+00f, -2.13910013e-01f, -2.53561425e+00f, -2.28246498e+00f, 1.14647126e+00f, -3.28312933e-01f, -3.28840709e+00f, -9.24541280e-02f },
{ -4.11263943e-01f, 4.37070179e+00f, -1.06866646e+00f, 2.81667948e-01f, -2.40089625e-01f, -1.94123387e+00f, -5.76230049e-01f, 1.28631639e+00f, -9.42580402e-01f, -2.70884204e+00f, 2.34116167e-01f },
{ 2.92810388e-02f, -5.18771744e+00f, 5.93005836e-01f, 3.56466436e+00f, 3.07159209e+00f, -1.51584661e+00f, 3.42720032e-01f, -2.86497378e+00f, 1.55709839e+00f, -1.17898512e+00f, -2.31476817e-02f },
{ -1.63454339e-01f, -8.95333290e+00f, -4.73330784e+00f, -2.21805191e+00f, 2.67185181e-01f, -2.80000925e+00f, -2.18185878e+00f, 5.21991432e-01f, -1.12995124e+00f, -5.86710644e+00f, -3.19395185e-01f },
{ -3.83621240e+00f, -1.07440805e+00f, -1.24628842e+00f, -3.63787198e+00f, -1.04635549e+00f, -1.88505590e+00f, -6.97979107e-02f, -1.54066968e+00f, 2.24810576e+00f, -1.10571837e+00f, 1.26801357e-01f },
{ -6.30969048e-01f, -3.19725609e+00f, -3.78806502e-01f, -2.81701708e+00f, 1.96269941e+00f, 3.31433713e-01f, -2.13205957e+00f, -1.09170258e+00f, 2.35659346e-01f, -8.28737020e-01f, -6.79535717e-02f },
{ 4.53389788e+00f, 1.15371120e+00f, -1.44697085e-01f, 1.54539263e+00f, -8.28743637e-01f, -1.01114571e+00f, -6.93084836e-01f, -7.86966801e-01f, 1.32059360e+00f, 6.66172862e-01f, 6.43026456e-02f },
{ 6.33665100e-02f, 1.11779082e+00f, -1.38003278e+00f, -2.82384515e+00f, 6.12393475e+00f, -2.48291516e+00f, -1.02088928e+00f, -3.38885784e+00f, -9.71082687e-01f, 3.75807285e+00f, -2.17704907e-01f },
{ -2.67457271e+00f, -1.55175298e-01f, 2.37797546e+00f, -3.28607035e+00f, 2.29052258e+00f, -2.81793618e+00f, -1.74063110e+00f, -6.24557018e-01f, 1.56037867e+00f, -2.27046180e+00f, 8.22649598e-02f },
{ 4.30532074e+00f, -2.22875640e-01f, 1.47787571e+00f, -1.05979691e+01f, 1.81600285e+00f, 5.47961807e+00f, -1.18097758e+00f, -4.62470531e+00f, 2.17762327e+00f, -4.33328673e-02f, 1.13040119e-01f },
{ 1.62531996e+00f, 1.08611333e+00f, 5.70297909e+00f, 1.97599459e+00f, -1.76705286e-01f, -9.24686491e-01f, -7.24601209e-01f, -2.14433700e-01f, 9.55041766e-01f, 3.21763337e-01f, 2.80465353e-02f },
{ -2.12481827e-01f, 2.29558253e+00f, 1.83770132e+00f, -3.71827245e+00f, 2.36984515e+00f, 1.35568887e-01f, 1.89463520e+00f, 8.85114551e-01f, 7.92675078e-01f, -1.75873220e+00f, -2.80738562e-01f },
{ -1.37629604e+00f, 1.39470863e+00f, -3.48205298e-01f, -6.59218550e+00f, 3.28378588e-01f, -1.59695220e+00f, 2.37293148e+00f, 1.07850170e+00f, -4.74234819e+00f, 6.73907757e-01f, 7.67363831e-02f },
{ 9.59208965e-01f, -1.36610496e+00f, 1.92011380e+00f, 6.24226665e+00f, -2.22915149e+00f, -2.95879865e+00f, -5.03804147e-01f, 6.59573615e-01f, -8.42700228e-02f, -2.32793427e+00f, 2.86285490e-01f },
{ 1.41597128e+00f, 3.41852641e+00f, 1.87362826e+00f, 6.02953434e+00f, -4.65053797e+00f, -2.24492574e+00f, -1.61891222e+00f, 1.07156861e+00f, -3.51371622e+00f, 9.61269379e-01f, -2.31374055e-01f },
{ -2.94700209e-02f, -2.47446164e-01f, 1.70704281e+00f, -4.44584131e+00f, -5.33068705e+00f, -5.68762016e+00f, 1.21802819e+00f, 3.86920929e-01f, -5.70900962e-02f, -2.58128810e+00f, 1.70140803e-01f },
{ 6.93668649e-02f, -4.18083370e-03f, 2.45328808e+00f, -1.73766530e+00f, -5.38318098e-01f, 4.33208644e-01f, -1.70497859e+00f, -2.01137877e+00f, 5.33516072e-02f, 2.42730427e+00f, -1.32729739e-01f },
{ 1.87396610e+00f, -1.83254528e+00f, -1.02944136e+00f, 4.52126360e+00f, 4.56714869e+00f, -2.58259511e+00f, -2.09621739e+00f, 1.37395158e-01f, -2.44737491e-01f, 1.17288649e+00f, 2.95203775e-01f },
{ -3.73465157e+00f, 3.04817033e+00f, -3.38418424e-01f, 3.95848799e+00f, 8.84834945e-01f, 1.90328074e+00f, 5.38158774e-01f, -4.35002387e-01f, 1.31520903e+00f, 6.06964052e-01f, 2.98082024e-01f },
{ 3.96279287e+00f, 4.79792070e+00f, -4.64907646e-01f, -1.52902949e+00f, 9.97412443e-01f, 1.16212726e+00f, 4.54997987e-01f, 2.52038181e-01f, 4.34496207e-04f, -1.13082898e+00f, 1.86972812e-01f },
{ -4.43331093e-01f, 1.89157712e+00f, 1.73667383e+00f, -1.35045671e+00f, -1.18215239e+00f, 4.19764709e+00f, -4.18803304e-01f, 6.26691401e-01f, 2.95908581e-02f, -2.37234259e+00f, -2.96275347e-01f },
{ 1.55096877e+00f, -6.37876558e+00f, -1.32316336e-01f, -2.84108341e-01f, 4.42253828e-01f, -5.05744934e-01f, -7.43563473e-01f, 3.58640730e-01f, 9.88944471e-01f, -1.21396887e+00f, 2.26281285e-01f },
{ -2.40544629e+00f, -2.39102292e+00f, 2.94291782e+00f, -1.01663971e+00f, -1.58248320e-02f, -4.13606453e+00f, 3.10726643e+00f, 1.76920459e-01f, -2.04637790e+00f, -1.72713056e-01f, 2.97292143e-01f }
};

const float GRU_WEIGHT_HH[24][8] PROGMEM = {
{ 2.98315382e+00f, 9.66544986e-01f, -1.50072956e+00f, 4.95768249e-01f, 6.16921842e-01f, 4.28045893e+00f, 1.28677189e-01f, 5.82031071e-01f },
{ -2.33016634e+00f, 2.26682472e+00f, 1.36347103e+00f, 2.75391102e+00f, -8.57199371e-01f, -1.46107697e+00f, 2.52317637e-01f, 1.36644408e-01f },
{ 1.84466338e+00f, 1.36520219e+00f, -1.23831725e+00f, -2.83252716e+00f, -2.45891047e+00f, 1.06917536e-02f, -2.50208902e+00f, 1.97940934e+00f },
{ -2.09189034e+00f, 3.75607163e-02f, -3.03459167e+00f, -1.89375699e+00f, -4.27302456e+00f, -8.81348491e-01f, -3.50408244e+00f, 1.91450381e+00f },
{ 2.10812831e+00f, -2.29358006e+00f, -1.47873855e+00f, 1.41068375e+00f, 2.69239450e+00f, 9.88548338e-01f, -1.36772199e-02f, -5.38435578e-01f },
{ 1.29305840e+00f, -3.26370329e-01f, -3.03058982e+00f, -2.83506966e+00f, -4.06928968e+00f, -2.11077422e-01f, -1.25016820e+00f, 1.21367812e+00f },
{ 5.34938574e-01f, 1.67367116e-01f, -1.55064237e+00f, 2.24482298e+00f, 1.79625523e+00f, -4.40569103e-01f, -2.71162763e-02f, 6.02101147e-01f },
{ -3.01480412e-01f, 5.31373978e-01f, 2.08851457e+00f, -1.26799154e+00f, 1.44167829e+00f, -4.27232534e-01f, -2.71342826e+00f, 1.33908677e+00f },
{ -1.12498319e+00f, 1.34289670e+00f, 8.64982188e-01f, 1.89633870e+00f, -1.44930744e+00f, -1.05106378e+00f, 3.93886352e+00f, -3.97014380e-01f },
{ -1.16362669e-01f, 5.91585279e-01f, -4.29087013e-01f, 2.05989480e+00f, -1.17497826e+00f, 2.76508641e+00f, -2.23191118e+00f, -1.33453095e+00f },
{ -2.32481885e+00f, -1.29304266e+00f, -3.86289090e-01f, 5.44288903e-02f, 6.67345166e-01f, -2.02811432e+00f, -3.94197762e-01f, 6.60084426e-01f },
{ 6.89065531e-02f, -1.10238075e+00f, 7.22529352e-01f, -2.61555791e+00f, 1.69531897e-01f, -1.73692092e-01f, 4.09782678e-01f, 5.98874927e-01f },
{ -1.44817030e+00f, 3.88276911e+00f, -2.79796338e+00f, 2.01636553e+00f, -2.08269906e+00f, -3.13939571e+00f, -7.39279687e-01f, -1.31956553e+00f },
{ -1.87462389e-01f, 7.87818432e-01f, -6.87473893e-01f, 2.21353158e-01f, 1.67386353e+00f, 1.37200546e+00f, 9.55024064e-01f, -5.73496521e-01f },
{ -2.77720332e+00f, -1.07705045e+00f, 9.47116077e-01f, -6.87310696e-01f, 3.06905024e-02f, 1.97722208e+00f, 1.77416217e+00f, -1.86463976e+00f },
{ 5.90051599e-02f, -8.03748429e-01f, 1.21393156e+00f, -2.02406931e+00f, 1.32378376e+00f, 3.58386350e+00f, -1.53301060e+00f, 1.51878789e-01f },
{ 7.19789803e-01f, -1.03554106e+00f, -1.66272020e+00f, 5.27788222e-01f, -1.77015162e+00f, -3.30889761e-01f, 1.87378573e+00f, -1.29133117e+00f },
{ -1.42936516e+00f, -3.30567032e-01f, -1.51600480e+00f, -2.08544397e+00f, -1.50814131e-01f, 7.82762468e-01f, -9.02197480e-01f, 1.03759587e+00f },
{ 4.76859301e-01f, -1.03571916e+00f, -5.28231621e-01f, -1.59299791e+00f, -2.18945527e+00f, 8.57745171e-01f, -7.16658652e-01f, 4.41868961e-01f },
{ -1.08623648e+00f, 2.32179952e+00f, -2.08984360e-01f, 1.98113275e+00f, 6.00291789e-01f, -2.73836684e+00f, 2.67631912e+00f, -1.14553034e+00f },
{ 1.76440656e+00f, 2.71957493e+00f, -8.31805587e-01f, -3.33915710e-01f, -1.73550701e+00f, 1.77551258e+00f, 1.75252664e+00f, -7.44578689e-02f },
{ -4.70071465e-01f, 1.41058815e+00f, -1.16013694e+00f, -8.91868234e-01f, -5.76383412e-01f, -8.07874918e-01f, 2.25022888e+00f, -1.94273686e+00f },
{ -1.41997755e-01f, 3.49853694e-01f, -1.70877904e-01f, 8.76628757e-02f, 1.33263254e+00f, -4.35790628e-01f, -4.89638418e-01f, -1.17897427e+00f },
{ 5.22281110e-01f, -1.86367854e-01f, -1.41216779e+00f, -9.82364893e-01f, 3.89971733e-01f, 7.74048150e-01f, -1.26081192e+00f, 1.47247946e+00f }
};

const float GRU_BIAS_IH[24] PROGMEM = { -8.51732552e-01f, -3.68226647e-01f, -3.80126268e-01f, -1.23328316e+00f, -1.14983058e+00f, -6.77295625e-01f, -1.16797352e+00f, 2.10025638e-01f, -8.38001430e-01f, -1.05575490e+00f, 6.45744383e-01f, 2.27843747e-01f, 3.03732514e-01f, -1.09545112e+00f, -4.45556700e-01f, -9.20556009e-01f, 1.95942730e-01f, 8.66316073e-03f, -2.09534943e-01f, 4.30068582e-01f, 2.45123953e-01f, -2.13452742e-01f, -2.50788391e-01f, -1.93472430e-01f };

const float GRU_BIAS_HH[24] PROGMEM = { -6.90927029e-01f, -7.85084128e-01f, -7.68991768e-01f, -1.10543191e+00f, -1.01094759e+00f, -4.82776254e-01f, -1.36077905e+00f, 2.08478466e-01f, -2.26724565e-01f, -9.58978593e-01f, 4.66918647e-01f, 8.32228661e-01f, -3.26336268e-03f, -6.19262338e-01f, -4.98224109e-01f, -1.16388476e+00f, -4.41230506e-01f, -2.00099945e-01f, 1.59228194e+00f, -1.59697139e+00f, 8.55543077e-01f, 1.65900838e+00f, -2.81911045e-02f, -1.98384732e-01f };

const float HEAD_WEIGHT[5][8] PROGMEM = {
{ 3.68120694e+00f, -4.42333013e-01f, -4.80370235e+00f, 9.64170277e-01f, -7.88892508e-01f, 1.95427001e+00f, -3.03810269e-01f, 2.12053823e+00f },
{ -1.62702978e+00f, -3.39429426e+00f, 8.47208619e-01f, 1.00225717e-01f, 4.26751465e-01f, 7.69599900e-02f, -1.40032089e+00f, 7.73049295e-01f },
{ -1.09419835e+00f, 1.58599857e-03f, 9.55706954e-01f, -1.01632595e+00f, -9.44314301e-01f, 2.02083468e-01f, 1.10899806e+00f, -2.38359118e+00f },
{ 1.08201063e+00f, 3.33763933e+00f, 4.76801187e-01f, -1.30929202e-01f, 1.19171011e+00f, -1.12415946e+00f, 9.49349463e-01f, 1.08707809e+00f },
{ 7.92872459e-02f, 9.47794616e-01f, -4.41151142e+00f, 5.44297695e-01f, -1.81491196e+00f, 6.19067669e-01f, -8.32287848e-01f, 1.42323375e+00f }
};

const float HEAD_BIAS[5] PROGMEM = { -5.03752232e-01f, 7.40275383e-02f, 7.96096921e-01f, 9.35286805e-02f, -5.54895020e+00f };

